2.4124155 -16.752405 -17.550035 -5.365969 3.1276572 -1.385361 -2.2724948 -9.204077 2.0545545 -3.92318 10.086233 -3.2199385 18.948175 -18.25183
-10.650698 -13.05 30.07697 -5.1597795 -6.6915507 5.1832232 0.79564613 10.203333 8.079809 -23.443996 -8.580707 -2.4527473 -14.656681 1.5779796
-3.9965649 -16.414183 -15.059242 -6.1216564 -7.7429113 -13.018049 -6.04676 1.6067122 15.996585 3.3014395 2.7358072 0.028615914 9.313458 -9.131044
-8.75319 -12.237966 29.894947 -7.416558 7.0979805 -2.537895 -7.576807 -2.2206843 -15.532986 -17.11885 0.71026087 -25.332834 -22.981443 2.3708255
2.503099 10.787753 -16.479618 -5.8777127 0.24677277 -4.0063066 1.1456918 -9.789266 32.171337 -21.387857 5.4335766 5.160497 15.002243 -13.57064
-12.290357 1.850913 -27.799402 -11.552471 -3.712466 17.012068 -0.8607585 7.685317 -3.0540287 21.275452 -11.991389 -1.3310276 -4.213708 -18.833548
8.203496 11.396495 -3.7068648 15.475902 2.2844331 -4.345577 1.5161433 -3.3857677 -17.698923 12.249634 -4.7333026 -6.359939 -0.51460177 15.73855
-7.746615 -0.41863877 -128.0 2.793064 -116.08956 0.8765157 -35.641655 -52.35652 -1.1367003 -64.0 -5.7112265 -1.3347709 0.8247692 -200.26173 5.743643 0.18279055 2.4452863 -7.9575515 0.45042142 -1.2292876 0.8247024 -63.989643 -4.861406 3.2407074 -16.0 8.104901 -20.088219 -8.0 -512.0 -1.229748
1.2236471 -11.491617 -19.947931 1.0972192 -92.48015 -0.7548249 10.969107 -0.18152007 0.6699283 0.007752322 -4.460977 -2.0053988 3.7256114 29.98348 -2.560901 -14.981537 3.699125 -0.04507492 4.2747345 1.7266295 0.48662892 25.218512 1.7711301 -0.45141247 -512.0 -9.105032 -3.6552024 -64.0 -512.0 4.832973
-2.9071167 -5.1409574 -1.0640304 1.0359555 -50.344994 -2.0617 -5.4523883 29.547247 0.01976404 3.9654405 1.7240734 -10.701843 -66.9291 41.38178 -4.81832 -18.074234 1.9995213 0.24379764 -4.001707 1.0557227 1.3150015 0.05261742 -3.3010578 -72.403465 0.37446076 -0.3536182 -0.21271324 1.8801476 -32.0 -12.491338
10.207732 -1.2164118 -185.80841 -1.0611106 -63.991554 2.7340631 0.36618218 -2.501296 -7.8153043 -512.0 -0.90207297 -38.18493 -3.7456853 -34.50009 3.1025312 -1.9494365 0.03220242 -3.0712016 -11.259417 0.7109204 2.3875635 -127.98239 4.8148217 0.055399977 -256.0 -0.9267287 6.0123034 -256.0 -0.53883445 -4.2222233
5.5829544 2.4630184 -150.60529 0.5076471 1.1941842 -0.09543704 2.0331695 -1.8161278 0.476938 2.37857 2.4770484 -3.109323 3.8126974 -12.191563 -3.299435 1.7831329 -6.753349 -8.568114 2.1484993 0.89171034 -0.58633 -0.27600235 2.9831924 1.0541509 -51.9326 2.2828853 2.2915642 -14.480659 -1.648105 3.1826408
-3.3349977 -9.642148 4.361288 -14.170049 1.6333139 2.2248836 5.5143123 -146.28215 -0.012580975 -63.904488 -0.16004357 3.8997717 3.703702 1.9472797 3.2137387 -12.39081 -115.88793 0.24640961 1.3708293 -16.460083 -1.174187 -0.38057175 -11.303331 -43.334576 13.365575 -31.10183 -46.337776 3.710719 -5.5921483 8.526645
-9.836366 -9.165843 -6.2774925 -7.549547 -94.65403 -3.2008567 3.9997034 -22.967913 0.1801647 -3.9381485 0.9161937 128.93605 0.6874519 -0.6825337 8.260301 -15.157625 -5.652474 2.7349634 -6.572218 -1.6849805 3.7127159 0.32305282 -98.13001 -0.09893823 -461.99005 -37.781494 -64.24479 -256.0 177.19017 -1.0297927
3.8693967 -10.417363 -31.980213 1.3481531 0.24588884 -0.07671077 2.7020667 5.197251 0.19567129 1.9992096 2.7004666 -49.518826 1.0703969 4.298369 -8.872474 -0.7863378 -10.673088 -0.15892074 0.9291295 2.174327 -0.17934413 1.0532901 8.106649 14.510071 -4.1849465 -114.52694 -79.46611 -18.993183 -3.2009683 -13.713517
-25.343174 -6.3600035 0.9517858 0.5914729 1.6520851 0.38559958 -63.942066 9.088875 0.58884805 -39.512035 -1.983961 0.6784387 -1.4355844 -4.0005846 3.1793213 -0.11748958 -0.40698606 -3.7306068 5.073742 0.65470296 -0.5005671 0.15286829 2.0137784 0.15951031 16.002626 -24.9039 16.079817 -2.4304118 -2.8073032 -2.7906067
-1.2885947 0.9829845 -2.0756977 1.212298 0.6628199 -0.4443394 -5.9162974 -0.73063165 -0.4987099 -64.05427 1.7734991 -1024.0 -7.634258 40.55781 0.56768996 1.3303971 -0.77452654 -108.34678 3.6751766 -8.056205 0.58734125 0.33749956 -3.5372539 0.37880772 -25.179428 0.6648304 -16.057207 -87.97207 -0.90373826 -4.7334433
-88.6413 -4.2663226 -4.202594 1.7225955 -36.95901 -1.4100785 -99.06139 -17.332296 0.01727828 -36.351025 -128.0 0.15033498 -8.908889 -128.0 0.30271176 -5.9439545 4.7345448 47.34243 -0.88650167 1.9104303 0.68715566 2.1637094 2.5650687 0.7441826 -0.05629927 -44.751198 -30.112923 0.2964369 -2048.0 2.1416287
-0.12566483 -0.03114538 -64.0 -13.843501 4.0 512.0 -16.0 -128.0 1.9912298 -16.0 180.34805 1.0838517 -32.0 -0.5 28.644157 -13.634378 -1.4762284 64.0 -4.0 1.4312394 0.2760051 0.06175855 -128.43097 0.46670458 -9.765625E-4 -0.02592216 -32.0 -0.00390625 512.0 -256.0
9.230894 -1.1868012 -2.5555143 -3.3485134 -1.5154029 0.26788214 -194.60435 16.006615 -0.13463373 4.8091598 -25.29167 -26.924942 2.0549295 -512.0 -35.831783 -2.8597784 2.743212 -14.308008 -5.439277 -0.78627187 -1.1579475 0.45904604 7.0068803 10.8584795 -112.900055 -1.5260236 5.037614 -112.225204 -9.33639 4.7197137
5.500599 -3.8906114 -1.9714159 -0.9940062 -3.341428 0.824118 3.0566542 -4.0311437 -2.704574 -2.0027678 0.43740648 -2.9092944 1.4024018 7.852977 -0.38836873 2.5960417 -58.9813 -512.0 -1.0670602 -2.76445 -0.59967446 -3.9377127 7.9145303 1.3300844 -0.0018675375 -1.5485531 -0.80608267 -12.35706 -4096.0 4.774934
-19.022133 -5.269375 0.93573344 -4.3710747 -2.7030675 -5.7673664 -4.7748494 -29.702528 -2.7884417 3.8864648 -5.0030217 -0.31675074 -10.0461855 -46.093555 -6.671883 -4.246486 -4.555988 -15.234646 -11.287653 -5.4040833 -5.0829988 -1.2574351 -15.822378 -17.458355 -17.129164 -3.5011232 -22.83745 3.9837582 -9.381621 -10.140036
-1.4966221 -2.165091
7.834123 1.2522026
1.622734 2.4759734
3.6997004 -2.8356974
1.3520116 0.16125476
-2.1807137 -2.0868373
-0.39770895 0.20856984
-0.046105765 0.24497972
2.1421928 2.2672508
0.20686215 0.39633098
-1.154975 0.53873146
0.3763213 0.70469064
-43.61416 -44.916256
-0.42540073 0.21405973
-16.004057 -6.9335275
-5.8691006 0.20416968
0.3439149 -0.38551325
0.41956076 0.18542658
-53.211514 -69.053925
-2.0521107 6.396011
-2.2150655 -1.4733144
0.6388886 0.7368597
-1.0015918 -7.289092
0.28016374 -3.0812192
0.3428532 0.9270768
-4.0066833 -3.9298906
0.84173733 3.5393715
0.885421 0.09850679
-14.779467 -29.157154
1.4416821 1.0200212
-0.31739396 -0.46627057