-0.9346772 -2.3466854 -0.60237974 -1.3877892 -1.4534736 -0.877325 -0.77400875 2.279775 -4.0692754 -4.011616 -5.568822 0.1012986
-2.2827802 -2.8054814 -2.908249 2.6777742 -0.026094483 2.9257612 1.3703922 -2.153956 -3.028474 -4.029255 3.5017176 0.49657288
-1.9739356 -1.5280689 -2.0512626 -2.3230546 -0.45257136 -1.236457 3.1060712 1.8280604 -2.9702737 -4.3081646 -6.4252224 -3.4168956
-1.8100812 -1.2221978 -0.7653525 1.4683752 -1.5676026 2.8976376 -0.8815129 -3.8438098 -2.4263642 -5.7379036 2.384799 -6.1247253
3.3935966 -2.717795 -3.3381615 -1.9831675 -0.34354222 0.13338079 1.8284607 3.194265 -3.4755628 -3.8184907 -5.9615664 -0.2636481
-0.73890483 -1.7087121 -2.2455952 3.2292914 -0.044655725 -1.8895161 1.9180653 -4.370185 -5.47774 -6.0865755 2.7746618 -3.7564685
-1.1739703 1.884711 1.5991187 -2.8042667 -0.5457727 -3.1434114 -6.6535974 -0.7530679 4.628617 12.581309 0.13552262 1.793742
2.7719371 0.33685306 0.118751824 0.7312736 -0.49015316 0.35614094
-1.897108 -1.7449405 -0.58385795 -1.7929277 0.38693908 2.57053
-2.0765944 -0.76363844 -0.3786572 -1.8291149 3.5530078 -0.13293853
-2.1079693 2.1794229 0.12276078 0.13437587 -2.6135807 0.80949706
-1.6866233 0.9338947 0.037194245 -0.18447281 -1.8242319 1.1285007
-1.8359705 1.237005 -1.9383347 0.68984956 -3.5467777 -1.3609756
2.1624424 1.9531568 0.39064515 0.76639247 -0.40787843 -0.08300916
-0.08947558 0.476785 -5.919813 0.25316554 3.9853013 0.48289585
-3.624873 -2.0818062 -0.80674 -5.845249 1.1960952 0.661791
-2.6448483 -2.1076858 0.24391863 1.0540309 -0.13589606 0.17188998
3.5251336 -5.133373 -2.184364 -1.0306262 2.1830223 3.0239916
-1.0685 -0.8153554 3.3111222 -2.8859417 -2.3896983 -0.63383
-1.4686254 -2.2919369 -2.3910735 -2.6100824 -3.2629359 -4.575718
0.801167 4.0619636
3.9825964 1.1213582
2.5052505 -2.1805408
2.158863 2.2144904
1.2875295 -2.4694004
-2.7518578 1.0930508
-0.81873876 -0.65746075