-3.4843802 -0.6878417 0.552813 8.018785 3.2495086 -2.131301 7.6801295 10.09053 -9.838656 2.7394004 -13.881251 11.621368 -1.182779 -11.24448 -2.7563705 -2.959601 2.3478582 3.9782338 9.161577 -2.7497153
-2.9163122 -8.825974 -4.1227994 -8.233826 -11.14905 6.7123733 -9.273205 -8.2150955 3.942471 -7.2506003 0.53441566 -5.851584 5.1791706 1.0522405 -3.7162933 4.088047 3.5133593 0.94008756 8.991398 -0.9560087
-4.22695 -2.5802302 -2.855461 -1.4897116 5.3957877 5.932312 -3.9611344 -13.589716 4.400064 2.2313755 2.3867505 -1.2266712 -5.7270184 -5.626977 -8.856601 -8.547843 -13.858275 6.9129143 3.0565925 -1.9261136
0.11341343 -11.902204 13.074529 -3.4166348 -6.4727564 8.152264 0.68164945 -9.871661 11.2347975 3.376327 0.017041447 2.3205228 2.0763338 -17.422937 -4.7703433 0.81320256 -1.5494881 -13.850897 10.594521 -2.2890663
-3.091661 -1.5033041 3.057667 -10.175641 9.965879 -9.923671 12.004724 1.9808165 -3.1519783 -15.201856 -4.6452765 4.9469476 11.650371 -1.1015176 -7.2356215 13.964717 -6.6272807 4.499189 6.235377 -1.2737354
9.311249 1.1901027 -10.850655 3.8052435 6.046539 0.6762414 3.7834554 -3.6804643 -3.5452306 -7.8934574 -8.123185 -7.1138167 6.9853034 3.192714 -8.000592 -7.9457273 5.792101 0.4564914 -0.093154475 -3.8855677
-1.7140269 6.374003 -2.4560184 0.93781537 -7.831047 -2.9398897 -3.539565 6.218818 -6.228235 11.474471 6.7687154 0.49886358 -9.100791 8.408406 14.9858885 -1.7521487 2.054245 -4.9211497 -17.14346 1.6499374
4.035493 -2.3308969 -15.309929 -23.450144 2.8267143 -10.084042 -2.447847 -0.5536668 -2.9894538 -0.05986384 5.4417706 -6.084756 3.3734596 6.709761 1.6375232 0.28549534 1.2429752 0.30622125 -31.61211 2.2734091
-2.3769252 -0.31717962 -5.2680936 -1.5658756 3.306419 -3.2140937 3.9678698 -1.5372019 3.9059014 -4.4223795 -3.8046205 1.7534856 1.2720201 -3.492384 -4.0266376 -2.521827 -1.196493 -7.885452 -15.47545 0.75996286
-0.42410582 0.0707216 -1.9203969 1.9696407 3.9995525 -0.84953505 -4.194067 -1.7513388 3.2790215 0.46047598 -1.6254846 -0.083591305 4.1268697 2.3427763 0.43067247 -0.7348107 0.051482856 -5.7248893 1.3348091 -6.2585406
-1.2077395 -3.6020746 5.8068 -1.2589017 9.521249 -2.9700847 -5.0237103 1.1186365 -4.658054 -2.924522 -0.7504552 0.57392365 -17.780787 -1.514402 2.0620766 -4.948645 0.2842282 32.824593 -20.03703 -1.3925784
-2.210615 -2.4377878 -1.4051751 -11.791165 -4.768726 1.3418666 -4.0 -3.5775259 -3.1054814 2.10061 0.5688097 -2.6884081 2.247372 -1.9251188 -4.000169 6.2953973 0.054043084 11.789065 -58.16751 -2.4668453
0.631981 -14.662803 -8.9799385 -9.1076355 -1.534781 1.6828191 -5.097898 1.5828518 1.6590537 -6.7518487 4.4221435 -0.093222566 4.4024158 -1.7080827 2.4061935 -1.3111756 -0.9544466 0.97991055 2.0018682 -1.9451993
5.450801 0.25910428 3.270397 -3.4738483 -2.4320276 0.48544762 -12.017487 3.9968317 -3.464281 -0.7552507 -0.74023867 -2.3817482 0.7188718 -2.3980591 -0.671943 -3.804134 -0.42961472 12.448469 5.146424 0.0037517154
-1.8891795 -1.3899844 -2.8383546 -1.56705 2.46201 0.64189726 1.0271779 -0.08115018 2.621605 -1.8021189 -0.38278186 1.8199749 1.0105307 -0.47114807 -2.9559875 -0.1340485 2.0685997 -7.4295554 -5.3962603 -3.9639661
-3.5325253 -32.0 -0.04872561 -3.2959251 -39.896698 1.2807322 -2.2133422 -8.759926 0.32832202 1.4336295 -3.7201586 -4.255208 -1.7177271 2.4501724 1.4732789 -5.372346 1.1088018 -112.3408 -58.278698 -10.866742
-1.2793188 -4.140216 -8.155126 6.644819 -3.0345094 2.0508034 0.50664663 -2.125252 -0.70196253 5.353378 -4.8939657 3.413981 -5.1957784 4.9683356 -3.4704027 3.6969624 -0.2518841 -42.580715 -2.1036131 -1.2175004
-0.49974436 -6.074132 3.3943844 5.7426767 -39.024387 -4.4101157 2.3665783 -6.1081953 -0.12360706 1.2663747 -11.518029 2.3098419 9.562064 -1.659606 7.2411456 -5.923744 1.1947812 -57.24243 -128.0 1.2926317
-3.4906166 3.6571653 0.85585475 -0.39574292 0.113655664 -1.7954788 -6.9717236 -3.60963 0.71006584 -0.85412616 -0.35810798 0.8650672 -1.4770331 2.1199574 -3.9445765 -0.22487803 -0.926406 9.915762 4.003449 -0.953497
-7.3215513 -9.02664 -21.451399 3.9598901 5.7845187 2.793313 -1.3042735 -1.1073374 -5.674871 0.25744975 0.29271528 8.791683 -0.012879096 -4.0159264 1.4426798 1.9135121 -3.9020486 -46.8399 4.0015173 -0.36816654
0.13130079 4.0011196 0.12708908 7.260007 3.0984044 -7.2437634 -6.6338186 0.77401143 -3.7966328 1.2753645 -2.6323485 1.6158159 -4.069056 -2.3306713 -0.4552218 -2.3207781 -0.5336806 -3.6130097 -62.226456 -1.8606249
0.6506543 2.2876139 6.807087 -9.36915 -21.520094 -2.762838 3.7419243 -0.47066888 -2.0605142 0.9174136 -12.161559 -3.8275046 -0.673495 -0.33229002 1.492924 2.4428868 6.995839 -15.899553 -106.47732 -1.2061119
2.1876087 5.230263 -4.5109954 -5.52776 3.3318741 1.0669872 3.5592036 -0.5875506 0.45405725 -1.7449508 -12.575591 -0.012062237 -22.332136 1.2025889 -19.370323 0.46088183 -3.1247063 4.9660563 -31.159178 1.7536223
-1.1608803 -0.53618985 -19.763102 5.110726 7.8465533 -0.2826727 -1.9107342 2.1440413 -2.1863053 2.7921143 -0.45892256 0.4442874 2.6372063 -0.63276047 -3.6150467 0.59203553 -1.1411287 -14.525099 -8.342139 6.894075
-2.3713188 -1.212262 2.024848 -0.32921046 -27.780724 0.9673734 3.7688272 -6.1773005 2.14782 -1.6369644 -14.202742 -9.147985 -16.303087 2.1795683 -3.932923 3.3446655 0.62821704 -20.44866 1.8781772 -9.449785
0.7086112 -10.108183 5.814933 5.3593445 -9.753956 -0.5349713 1.2345244 -2.8817003 -1.9866661 -0.048380602 3.4829667 -1.8179028 4.2347894 -3.1089416 -9.732292 -4.7501984 -31.563936 12.740294 4.056879 -6.644564
-0.7382473 0.11744318 -3.7907157 -1.2209609 -0.9993624 -1.9422138 1.3112363 -0.2112321 -0.03283451 1.1633791 -1.3676134 1.8664634 -0.28544867 0.22334768 -0.8937689 -0.31868556 0.9673661 -6.5106363 -31.72187 -0.40133423
-3.5009873 -3.1554823 0.40252757 -3.7758148 8.180215 -5.1418247 0.9990079 -1.650511 -3.2724788 -3.8248773 -5.3600254 -7.904681 -6.55839 -5.692569 -4.217461 -3.5881457 -7.11745 10.534872 4.0054617 -2.143902
2.6818793 -1.9483749
-0.45576024 -1.1541206
2.6582146 -3.3190567
4.001807 2.9002438
0.38631633 0.35686153
4.2616763 3.5957232
-3.5391893 -1.8314793
0.21263698 -1.9167986
6.387356 -1.8635569
-0.83816606 -0.93849945
1.3653728 -1.159875
-2.7265377 -4.5376806
-1.0800236 1.7693934
-1.0982119 -0.38030705
1.1626371 0.073950335
0.18926373 -0.5709413
-1.495409 -1.9404109
0.26158446 0.42282137
0.13945323 0.23881854
-1.0124164 1.2658423
-0.35337448 -0.27675492